digraph Tree {
node [shape=box] ;
0 [label="pclass <= 1.5\nentropy = 1.1492\nsamples = 916\nvalue = [195, 82, 639]"] ;
1 [label="fare <= 55.2208\nentropy = 1.0639\nsamples = 218\nvalue = [102, 2, 114]"] ;
0 -> 1 [labeldistance=2.5, labelangle=45, headlabel="True"] ;
2 [label="age.bin <= 2.4307\nentropy = 0.8439\nsamples = 92\nvalue = [25, 0, 67]"] ;
1 -> 2 ;
3 [label="fare <= 50.6833\nentropy = 0.9995\nsamples = 39\nvalue = [19, 0, 20]"] ;
2 -> 3 ;
4 [label="age.bin <= 1.5\nentropy = 0.9481\nsamples = 30\nvalue = [19, 0, 11]"] ;
3 -> 4 ;
5 [label="entropy = 0.0\nsamples = 3\nvalue = [0, 0, 3]"] ;
4 -> 5 ;
6 [label="fare <= 27.1354\nentropy = 0.8767\nsamples = 27\nvalue = [19, 0, 8]"] ;
4 -> 6 ;
7 [label="fare <= 12.8708\nentropy = 0.9183\nsamples = 9\nvalue = [3, 0, 6]"] ;
6 -> 7 ;
8 [label="entropy = 0.0\nsamples = 3\nvalue = [0, 0, 3]"] ;
7 -> 8 ;
9 [label="fare <= 26.1437\nentropy = 1.0\nsamples = 6\nvalue = [3, 0, 3]"] ;
7 -> 9 ;
10 [label="entropy = 0.0\nsamples = 2\nvalue = [2, 0, 0]"] ;
9 -> 10 ;
11 [label="fare <= 26.4688\nentropy = 0.8113\nsamples = 4\nvalue = [1, 0, 3]"] ;
9 -> 11 ;
12 [label="entropy = 0.0\nsamples = 2\nvalue = [0, 0, 2]"] ;
11 -> 12 ;
13 [label="entropy = 1.0\nsamples = 2\nvalue = [1, 0, 1]"] ;
11 -> 13 ;
14 [label="fare <= 33.5896\nentropy = 0.5033\nsamples = 18\nvalue = [16, 0, 2]"] ;
6 -> 14 ;
15 [label="entropy = 0.0\nsamples = 13\nvalue = [13, 0, 0]"] ;
14 -> 15 ;
16 [label="fare <= 48.3\nentropy = 0.971\nsamples = 5\nvalue = [3, 0, 2]"] ;
14 -> 16 ;
17 [label="age.bin <= 2.1997\nentropy = 0.9183\nsamples = 3\nvalue = [1, 0, 2]"] ;
16 -> 17 ;
18 [label="entropy = 0.0\nsamples = 2\nvalue = [0, 0, 2]"] ;
17 -> 18 ;
19 [label="entropy = 0.0\nsamples = 1\nvalue = [1, 0, 0]"] ;
17 -> 19 ;
20 [label="entropy = 0.0\nsamples = 2\nvalue = [2, 0, 0]"] ;
16 -> 20 ;
21 [label="entropy = 0.0\nsamples = 9\nvalue = [0, 0, 9]"] ;
3 -> 21 ;
22 [label="fare <= 26.9979\nentropy = 0.5095\nsamples = 53\nvalue = [6, 0, 47]"] ;
2 -> 22 ;
23 [label="entropy = 0.0\nsamples = 21\nvalue = [0, 0, 21]"] ;
22 -> 23 ;
24 [label="fare <= 29.85\nentropy = 0.6962\nsamples = 32\nvalue = [6, 0, 26]"] ;
22 -> 24 ;
25 [label="survived <= 0.5\nentropy = 0.7219\nsamples = 5\nvalue = [4, 0, 1]"] ;
24 -> 25 ;
26 [label="fare <= 29.1\nentropy = 1.0\nsamples = 2\nvalue = [1, 0, 1]"] ;
25 -> 26 ;
27 [label="entropy = 0.0\nsamples = 1\nvalue = [0, 0, 1]"] ;
26 -> 27 ;
28 [label="entropy = 0.0\nsamples = 1\nvalue = [1, 0, 0]"] ;
26 -> 28 ;
29 [label="entropy = 0.0\nsamples = 3\nvalue = [3, 0, 0]"] ;
25 -> 29 ;
30 [label="fare <= 45.9521\nentropy = 0.3809\nsamples = 27\nvalue = [2, 0, 25]"] ;
24 -> 30 ;
31 [label="entropy = 0.0\nsamples = 14\nvalue = [0, 0, 14]"] ;
30 -> 31 ;
32 [label="fare <= 50.9875\nentropy = 0.6194\nsamples = 13\nvalue = [2, 0, 11]"] ;
30 -> 32 ;
33 [label="age.bin <= 2.7275\nentropy = 1.0\nsamples = 4\nvalue = [2, 0, 2]"] ;
32 -> 33 ;
34 [label="entropy = 0.0\nsamples = 1\nvalue = [0, 0, 1]"] ;
33 -> 34 ;
35 [label="fare <= 49.7521\nentropy = 0.9183\nsamples = 3\nvalue = [2, 0, 1]"] ;
33 -> 35 ;
36 [label="entropy = 0.0\nsamples = 1\nvalue = [1, 0, 0]"] ;
35 -> 36 ;
37 [label="fare <= 50.2479\nentropy = 1.0\nsamples = 2\nvalue = [1, 0, 1]"] ;
35 -> 37 ;
38 [label="entropy = 0.0\nsamples = 1\nvalue = [0, 0, 1]"] ;
37 -> 38 ;
39 [label="entropy = 0.0\nsamples = 1\nvalue = [1, 0, 0]"] ;
37 -> 39 ;
40 [label="entropy = 0.0\nsamples = 9\nvalue = [0, 0, 9]"] ;
32 -> 40 ;
41 [label="parch <= 1.5\nentropy = 1.0598\nsamples = 126\nvalue = [77, 2, 47]"] ;
1 -> 41 ;
42 [label="fare <= 224.6521\nentropy = 1.0337\nsamples = 105\nvalue = [69, 2, 34]"] ;
41 -> 42 ;
43 [label="fare <= 149.0354\nentropy = 1.0787\nsamples = 94\nvalue = [58, 2, 34]"] ;
42 -> 43 ;
44 [label="fare <= 99.9625\nentropy = 1.031\nsamples = 81\nvalue = [55, 2, 24]"] ;
43 -> 44 ;
45 [label="fare <= 83.3167\nentropy = 1.1365\nsamples = 60\nvalue = [36, 2, 22]"] ;
44 -> 45 ;
46 [label="sibsp <= 0.5\nentropy = 0.8974\nsamples = 51\nvalue = [35, 0, 16]"] ;
45 -> 46 ;
47 [label="fare <= 77.0083\nentropy = 0.5746\nsamples = 22\nvalue = [19, 0, 3]"] ;
46 -> 47 ;
48 [label="entropy = 0.0\nsamples = 11\nvalue = [11, 0, 0]"] ;
47 -> 48 ;
49 [label="fare <= 79.025\nentropy = 0.8454\nsamples = 11\nvalue = [8, 0, 3]"] ;
47 -> 49 ;
50 [label="entropy = 0.0\nsamples = 3\nvalue = [0, 0, 3]"] ;
49 -> 50 ;
51 [label="entropy = 0.0\nsamples = 8\nvalue = [8, 0, 0]"] ;
49 -> 51 ;
52 [label="fare <= 79.425\nentropy = 0.9923\nsamples = 29\nvalue = [16, 0, 13]"] ;
46 -> 52 ;
53 [label="sex <= 0.5\nentropy = 0.9183\nsamples = 21\nvalue = [14, 0, 7]"] ;
52 -> 53 ;
54 [label="fare <= 55.6709\nentropy = 0.9957\nsamples = 13\nvalue = [7, 0, 6]"] ;
53 -> 54 ;
55 [label="entropy = 0.0\nsamples = 2\nvalue = [2, 0, 0]"] ;
54 -> 55 ;
56 [label="fare <= 57.375\nentropy = 0.994\nsamples = 11\nvalue = [5, 0, 6]"] ;
54 -> 56 ;
57 [label="entropy = 0.0\nsamples = 2\nvalue = [0, 0, 2]"] ;
56 -> 57 ;
58 [label="fare <= 60.2875\nentropy = 0.9911\nsamples = 9\nvalue = [5, 0, 4]"] ;
56 -> 58 ;
59 [label="entropy = 0.0\nsamples = 2\nvalue = [2, 0, 0]"] ;
58 -> 59 ;
60 [label="fare <= 71.6646\nentropy = 0.9852\nsamples = 7\nvalue = [3, 0, 4]"] ;
58 -> 60 ;
61 [label="entropy = 0.0\nsamples = 2\nvalue = [0, 0, 2]"] ;
60 -> 61 ;
62 [label="fare <= 77.3438\nentropy = 0.971\nsamples = 5\nvalue = [3, 0, 2]"] ;
60 -> 62 ;
63 [label="entropy = 0.0\nsamples = 1\nvalue = [1, 0, 0]"] ;
62 -> 63 ;
64 [label="fare <= 78.1125\nentropy = 1.0\nsamples = 4\nvalue = [2, 0, 2]"] ;
62 -> 64 ;
65 [label="entropy = 0.0\nsamples = 1\nvalue = [0, 0, 1]"] ;
64 -> 65 ;
66 [label="fare <= 78.5583\nentropy = 0.9183\nsamples = 3\nvalue = [2, 0, 1]"] ;
64 -> 66 ;
67 [label="entropy = 0.0\nsamples = 1\nvalue = [1, 0, 0]"] ;
66 -> 67 ;
68 [label="fare <= 79.025\nentropy = 1.0\nsamples = 2\nvalue = [1, 0, 1]"] ;
66 -> 68 ;
69 [label="entropy = 0.0\nsamples = 1\nvalue = [0, 0, 1]"] ;
68 -> 69 ;
70 [label="entropy = 0.0\nsamples = 1\nvalue = [1, 0, 0]"] ;
68 -> 70 ;
71 [label="fare <= 57.375\nentropy = 0.5436\nsamples = 8\nvalue = [7, 0, 1]"] ;
53 -> 71 ;
72 [label="fare <= 56.9646\nentropy = 0.9183\nsamples = 3\nvalue = [2, 0, 1]"] ;
71 -> 72 ;
73 [label="entropy = 0.0\nsamples = 2\nvalue = [2, 0, 0]"] ;
72 -> 73 ;
74 [label="entropy = 0.0\nsamples = 1\nvalue = [0, 0, 1]"] ;
72 -> 74 ;
75 [label="entropy = 0.0\nsamples = 5\nvalue = [5, 0, 0]"] ;
71 -> 75 ;
76 [label="survived <= 0.5\nentropy = 0.8113\nsamples = 8\nvalue = [2, 0, 6]"] ;
52 -> 76 ;
77 [label="age.bin <= 2.5\nentropy = 0.9183\nsamples = 3\nvalue = [2, 0, 1]"] ;
76 -> 77 ;
78 [label="entropy = 0.0\nsamples = 2\nvalue = [2, 0, 0]"] ;
77 -> 78 ;
79 [label="entropy = 0.0\nsamples = 1\nvalue = [0, 0, 1]"] ;
77 -> 79 ;
80 [label="entropy = 0.0\nsamples = 5\nvalue = [0, 0, 5]"] ;
76 -> 80 ;
81 [label="sibsp <= 0.5\nentropy = 1.2244\nsamples = 9\nvalue = [1, 2, 6]"] ;
45 -> 81 ;
82 [label="entropy = 0.0\nsamples = 4\nvalue = [0, 0, 4]"] ;
81 -> 82 ;
83 [label="sex <= 0.5\nentropy = 1.5219\nsamples = 5\nvalue = [1, 2, 2]"] ;
81 -> 83 ;
84 [label="fare <= 86.7375\nentropy = 0.9183\nsamples = 3\nvalue = [0, 1, 2]"] ;
83 -> 84 ;
85 [label="entropy = 0.0\nsamples = 1\nvalue = [0, 0, 1]"] ;
84 -> 85 ;
86 [label="parch <= 0.5\nentropy = 1.0\nsamples = 2\nvalue = [0, 1, 1]"] ;
84 -> 86 ;
87 [label="entropy = 0.0\nsamples = 1\nvalue = [0, 1, 0]"] ;
86 -> 87 ;
88 [label="entropy = 0.0\nsamples = 1\nvalue = [0, 0, 1]"] ;
86 -> 88 ;
89 [label="age.bin <= 2.5\nentropy = 1.0\nsamples = 2\nvalue = [1, 1, 0]"] ;
83 -> 89 ;
90 [label="entropy = 0.0\nsamples = 1\nvalue = [1, 0, 0]"] ;
89 -> 90 ;
91 [label="entropy = 0.0\nsamples = 1\nvalue = [0, 1, 0]"] ;
89 -> 91 ;
92 [label="fare <= 123.4625\nentropy = 0.4537\nsamples = 21\nvalue = [19, 0, 2]"] ;
44 -> 92 ;
93 [label="entropy = 0.0\nsamples = 9\nvalue = [9, 0, 0]"] ;
92 -> 93 ;
94 [label="fare <= 134.075\nentropy = 0.65\nsamples = 12\nvalue = [10, 0, 2]"] ;
92 -> 94 ;
95 [label="entropy = 0.0\nsamples = 1\nvalue = [0, 0, 1]"] ;
94 -> 95 ;
96 [label="sibsp <= 0.5\nentropy = 0.4395\nsamples = 11\nvalue = [10, 0, 1]"] ;
94 -> 96 ;
97 [label="age.bin <= 2.5\nentropy = 0.65\nsamples = 6\nvalue = [5, 0, 1]"] ;
96 -> 97 ;
98 [label="fare <= 135.0667\nentropy = 0.9183\nsamples = 3\nvalue = [2, 0, 1]"] ;
97 -> 98 ;
99 [label="entropy = 0.0\nsamples = 1\nvalue = [1, 0, 0]"] ;
98 -> 99 ;
100 [label="entropy = 1.0\nsamples = 2\nvalue = [1, 0, 1]"] ;
98 -> 100 ;
101 [label="entropy = 0.0\nsamples = 3\nvalue = [3, 0, 0]"] ;
97 -> 101 ;
102 [label="entropy = 0.0\nsamples = 5\nvalue = [5, 0, 0]"] ;
96 -> 102 ;
103 [label="fare <= 211.4187\nentropy = 0.7793\nsamples = 13\nvalue = [3, 0, 10]"] ;
43 -> 103 ;
104 [label="entropy = 0.0\nsamples = 7\nvalue = [0, 0, 7]"] ;
103 -> 104 ;
105 [label="fare <= 216.6396\nentropy = 1.0\nsamples = 6\nvalue = [3, 0, 3]"] ;
103 -> 105 ;
106 [label="entropy = 0.0\nsamples = 3\nvalue = [3, 0, 0]"] ;
105 -> 106 ;
107 [label="entropy = 0.0\nsamples = 3\nvalue = [0, 0, 3]"] ;
105 -> 107 ;
108 [label="entropy = 0.0\nsamples = 11\nvalue = [11, 0, 0]"] ;
42 -> 108 ;
109 [label="fare <= 262.6875\nentropy = 0.9587\nsamples = 21\nvalue = [8, 0, 13]"] ;
41 -> 109 ;
110 [label="fare <= 181.525\nentropy = 0.9975\nsamples = 17\nvalue = [8, 0, 9]"] ;
109 -> 110 ;
111 [label="sibsp <= 0.5\nentropy = 0.8113\nsamples = 12\nvalue = [3, 0, 9]"] ;
110 -> 111 ;
112 [label="fare <= 95.2666\nentropy = 0.971\nsamples = 5\nvalue = [3, 0, 2]"] ;
111 -> 112 ;
113 [label="entropy = 0.0\nsamples = 2\nvalue = [0, 0, 2]"] ;
112 -> 113 ;
114 [label="entropy = 0.0\nsamples = 3\nvalue = [3, 0, 0]"] ;
112 -> 114 ;
115 [label="entropy = 0.0\nsamples = 7\nvalue = [0, 0, 7]"] ;
111 -> 115 ;
116 [label="entropy = 0.0\nsamples = 5\nvalue = [5, 0, 0]"] ;
110 -> 116 ;
117 [label="entropy = 0.0\nsamples = 4\nvalue = [0, 0, 4]"] ;
109 -> 117 ;
118 [label="fare <= 7.7625\nentropy = 1.0547\nsamples = 698\nvalue = [93, 80, 525]"] ;
0 -> 118 [labeldistance=2.5, labelangle=-45, headlabel="False"] ;
119 [label="fare <= 7.6875\nentropy = 1.546\nsamples = 138\nvalue = [33, 46, 59]"] ;
118 -> 119 ;
120 [label="fare <= 7.2396\nentropy = 1.1756\nsamples = 91\nvalue = [33, 4, 54]"] ;
119 -> 120 ;
121 [label="fare <= 7.175\nentropy = 1.2215\nsamples = 64\nvalue = [33, 3, 28]"] ;
120 -> 121 ;
122 [label="age.bin <= 1.9994\nentropy = 0.8488\nsamples = 34\nvalue = [3, 3, 28]"] ;
121 -> 122 ;
123 [label="age.bin <= 1.382\nentropy = 1.4855\nsamples = 10\nvalue = [2, 3, 5]"] ;
122 -> 123 ;
124 [label="sex <= 0.5\nentropy = 0.8631\nsamples = 7\nvalue = [0, 2, 5]"] ;
123 -> 124 ;
125 [label="entropy = 0.0\nsamples = 1\nvalue = [0, 1, 0]"] ;
124 -> 125 ;
126 [label="fare <= 6.9\nentropy = 0.65\nsamples = 6\nvalue = [0, 1, 5]"] ;
124 -> 126 ;
127 [label="fare <= 6.6229\nentropy = 0.9183\nsamples = 3\nvalue = [0, 1, 2]"] ;
126 -> 127 ;
128 [label="entropy = 0.0\nsamples = 2\nvalue = [0, 0, 2]"] ;
127 -> 128 ;
129 [label="entropy = 0.0\nsamples = 1\nvalue = [0, 1, 0]"] ;
127 -> 129 ;
130 [label="entropy = 0.0\nsamples = 3\nvalue = [0, 0, 3]"] ;
126 -> 130 ;
131 [label="age.bin <= 1.9492\nentropy = 0.9183\nsamples = 3\nvalue = [2, 1, 0]"] ;
123 -> 131 ;
132 [label="entropy = 0.0\nsamples = 2\nvalue = [2, 0, 0]"] ;
131 -> 132 ;
133 [label="entropy = 0.0\nsamples = 1\nvalue = [0, 1, 0]"] ;
131 -> 133 ;
134 [label="fare <= 6.4437\nentropy = 0.2499\nsamples = 24\nvalue = [1, 0, 23]"] ;
122 -> 134 ;
135 [label="fare <= 3.2188\nentropy = 0.65\nsamples = 6\nvalue = [1, 0, 5]"] ;
134 -> 135 ;
136 [label="entropy = 0.0\nsamples = 5\nvalue = [0, 0, 5]"] ;
135 -> 136 ;
137 [label="entropy = 0.0\nsamples = 1\nvalue = [1, 0, 0]"] ;
135 -> 137 ;
138 [label="entropy = 0.0\nsamples = 18\nvalue = [0, 0, 18]"] ;
134 -> 138 ;
139 [label="entropy = 0.0\nsamples = 30\nvalue = [30, 0, 0]"] ;
121 -> 139 ;
140 [label="age.bin <= 1.7551\nentropy = 0.2285\nsamples = 27\nvalue = [0, 1, 26]"] ;
120 -> 140 ;
141 [label="fare <= 7.6396\nentropy = 1.0\nsamples = 2\nvalue = [0, 1, 1]"] ;
140 -> 141 ;
142 [label="entropy = 0.0\nsamples = 1\nvalue = [0, 1, 0]"] ;
141 -> 142 ;
143 [label="entropy = 0.0\nsamples = 1\nvalue = [0, 0, 1]"] ;
141 -> 143 ;
144 [label="entropy = 0.0\nsamples = 25\nvalue = [0, 0, 25]"] ;
140 -> 144 ;
145 [label="age.bin <= 1.2671\nentropy = 0.4889\nsamples = 47\nvalue = [0, 42, 5]"] ;
119 -> 145 ;
146 [label="sex <= 0.5\nentropy = 1.0\nsamples = 4\nvalue = [0, 2, 2]"] ;
145 -> 146 ;
147 [label="entropy = 0.0\nsamples = 2\nvalue = [0, 2, 0]"] ;
146 -> 147 ;
148 [label="entropy = 0.0\nsamples = 2\nvalue = [0, 0, 2]"] ;
146 -> 148 ;
149 [label="age.bin <= 2.501\nentropy = 0.3651\nsamples = 43\nvalue = [0, 40, 3]"] ;
145 -> 149 ;
150 [label="survived <= 0.5\nentropy = 0.1756\nsamples = 38\nvalue = [0, 37, 1]"] ;
149 -> 150 ;
151 [label="entropy = 0.0\nsamples = 24\nvalue = [0, 24, 0]"] ;
150 -> 151 ;
152 [label="age.bin <= 1.7672\nentropy = 0.3712\nsamples = 14\nvalue = [0, 13, 1]"] ;
150 -> 152 ;
153 [label="entropy = 0.0\nsamples = 9\nvalue = [0, 9, 0]"] ;
152 -> 153 ;
154 [label="sex <= 0.5\nentropy = 0.7219\nsamples = 5\nvalue = [0, 4, 1]"] ;
152 -> 154 ;
155 [label="fare <= 7.7375\nentropy = 1.0\nsamples = 2\nvalue = [0, 1, 1]"] ;
154 -> 155 ;
156 [label="entropy = 0.0\nsamples = 1\nvalue = [0, 1, 0]"] ;
155 -> 156 ;
157 [label="entropy = 0.0\nsamples = 1\nvalue = [0, 0, 1]"] ;
155 -> 157 ;
158 [label="entropy = 0.0\nsamples = 3\nvalue = [0, 3, 0]"] ;
154 -> 158 ;
159 [label="sex <= 0.5\nentropy = 0.971\nsamples = 5\nvalue = [0, 3, 2]"] ;
149 -> 159 ;
160 [label="entropy = 0.0\nsamples = 1\nvalue = [0, 0, 1]"] ;
159 -> 160 ;
161 [label="entropy = 0.8113\nsamples = 4\nvalue = [0, 3, 1]"] ;
159 -> 161 ;
162 [label="fare <= 13.2084\nentropy = 0.8113\nsamples = 560\nvalue = [60, 34, 466]"] ;
118 -> 162 ;
163 [label="sex <= 0.5\nentropy = 0.5558\nsamples = 285\nvalue = [10, 18, 257]"] ;
162 -> 163 ;
164 [label="age.bin <= 1.6894\nentropy = 0.7593\nsamples = 66\nvalue = [1, 11, 54]"] ;
163 -> 164 ;
165 [label="age.bin <= 1.2669\nentropy = 1.1916\nsamples = 23\nvalue = [1, 9, 13]"] ;
164 -> 165 ;
166 [label="fare <= 8.3458\nentropy = 0.978\nsamples = 17\nvalue = [1, 3, 13]"] ;
165 -> 166 ;
167 [label="fare <= 7.8667\nentropy = 0.9852\nsamples = 7\nvalue = [0, 3, 4]"] ;
166 -> 167 ;
168 [label="entropy = 0.0\nsamples = 4\nvalue = [0, 0, 4]"] ;
167 -> 168 ;
169 [label="entropy = 0.0\nsamples = 3\nvalue = [0, 3, 0]"] ;
167 -> 169 ;
170 [label="sibsp <= 0.5\nentropy = 0.469\nsamples = 10\nvalue = [1, 0, 9]"] ;
166 -> 170 ;
171 [label="entropy = 0.0\nsamples = 6\nvalue = [0, 0, 6]"] ;
170 -> 171 ;
172 [label="parch <= 0.5\nentropy = 0.8113\nsamples = 4\nvalue = [1, 0, 3]"] ;
170 -> 172 ;
173 [label="survived <= 0.5\nentropy = 1.0\nsamples = 2\nvalue = [1, 0, 1]"] ;
172 -> 173 ;
174 [label="entropy = 0.0\nsamples = 1\nvalue = [0, 0, 1]"] ;
173 -> 174 ;
175 [label="entropy = 0.0\nsamples = 1\nvalue = [1, 0, 0]"] ;
173 -> 175 ;
176 [label="entropy = 0.0\nsamples = 2\nvalue = [0, 0, 2]"] ;
172 -> 176 ;
177 [label="entropy = 0.0\nsamples = 6\nvalue = [0, 6, 0]"] ;
165 -> 177 ;
178 [label="fare <= 7.8875\nentropy = 0.2714\nsamples = 43\nvalue = [0, 2, 41]"] ;
164 -> 178 ;
179 [label="fare <= 7.8667\nentropy = 0.5436\nsamples = 8\nvalue = [0, 1, 7]"] ;
178 -> 179 ;
180 [label="entropy = 0.0\nsamples = 7\nvalue = [0, 0, 7]"] ;
179 -> 180 ;
181 [label="entropy = 0.0\nsamples = 1\nvalue = [0, 1, 0]"] ;
179 -> 181 ;
182 [label="fare <= 12.3188\nentropy = 0.1872\nsamples = 35\nvalue = [0, 1, 34]"] ;
178 -> 182 ;
183 [label="entropy = 0.0\nsamples = 26\nvalue = [0, 0, 26]"] ;
182 -> 183 ;
184 [label="fare <= 12.675\nentropy = 0.5033\nsamples = 9\nvalue = [0, 1, 8]"] ;
182 -> 184 ;
185 [label="entropy = 0.0\nsamples = 1\nvalue = [0, 1, 0]"] ;
184 -> 185 ;
186 [label="entropy = 0.0\nsamples = 8\nvalue = [0, 0, 8]"] ;
184 -> 186 ;
187 [label="age.bin <= 2.001\nentropy = 0.4495\nsamples = 219\nvalue = [9, 7, 203]"] ;
163 -> 187 ;
188 [label="fare <= 7.8917\nentropy = 0.388\nsamples = 192\nvalue = [9, 3, 180]"] ;
187 -> 188 ;
189 [label="fare <= 7.8771\nentropy = 0.3034\nsamples = 37\nvalue = [0, 2, 35]"] ;
188 -> 189 ;
190 [label="fare <= 7.8146\nentropy = 0.1872\nsamples = 35\nvalue = [0, 1, 34]"] ;
189 -> 190 ;
191 [label="entropy = 0.0\nsamples = 21\nvalue = [0, 0, 21]"] ;
190 -> 191 ;
192 [label="fare <= 7.8417\nentropy = 0.3712\nsamples = 14\nvalue = [0, 1, 13]"] ;
190 -> 192 ;
193 [label="entropy = 0.0\nsamples = 1\nvalue = [0, 1, 0]"] ;
192 -> 193 ;
194 [label="entropy = 0.0\nsamples = 13\nvalue = [0, 0, 13]"] ;
192 -> 194 ;
195 [label="fare <= 7.8833\nentropy = 1.0\nsamples = 2\nvalue = [0, 1, 1]"] ;
189 -> 195 ;
196 [label="entropy = 0.0\nsamples = 1\nvalue = [0, 1, 0]"] ;
195 -> 196 ;
197 [label="entropy = 0.0\nsamples = 1\nvalue = [0, 0, 1]"] ;
195 -> 197 ;
198 [label="fare <= 7.9104\nentropy = 0.3754\nsamples = 155\nvalue = [9, 1, 145]"] ;
188 -> 198 ;
199 [label="age.bin <= 1.8501\nentropy = 0.5917\nsamples = 35\nvalue = [5, 0, 30]"] ;
198 -> 199 ;
200 [label="entropy = 0.0\nsamples = 16\nvalue = [0, 0, 16]"] ;
199 -> 200 ;
201 [label="age.bin <= 1.9501\nentropy = 0.8315\nsamples = 19\nvalue = [5, 0, 14]"] ;
199 -> 201 ;
202 [label="entropy = 0.0\nsamples = 3\nvalue = [3, 0, 0]"] ;
201 -> 202 ;
203 [label="survived <= 0.5\nentropy = 0.5436\nsamples = 16\nvalue = [2, 0, 14]"] ;
201 -> 203 ;
204 [label="entropy = 0.3534\nsamples = 15\nvalue = [1, 0, 14]"] ;
203 -> 204 ;
205 [label="entropy = 0.0\nsamples = 1\nvalue = [1, 0, 0]"] ;
203 -> 205 ;
206 [label="fare <= 8.5479\nentropy = 0.28\nsamples = 120\nvalue = [4, 1, 115]"] ;
198 -> 206 ;
207 [label="entropy = 0.0\nsamples = 51\nvalue = [0, 0, 51]"] ;
206 -> 207 ;
208 [label="pclass <= 2.5\nentropy = 0.4274\nsamples = 69\nvalue = [4, 1, 64]"] ;
206 -> 208 ;
209 [label="fare <= 11.925\nentropy = 0.3238\nsamples = 42\nvalue = [1, 1, 40]"] ;
208 -> 209 ;
210 [label="entropy = 0.0\nsamples = 22\nvalue = [0, 0, 22]"] ;
209 -> 210 ;
211 [label="fare <= 12.9375\nentropy = 0.569\nsamples = 20\nvalue = [1, 1, 18]"] ;
209 -> 211 ;
212 [label="fare <= 12.6125\nentropy = 1.0\nsamples = 2\nvalue = [1, 1, 0]"] ;
211 -> 212 ;
213 [label="entropy = 0.0\nsamples = 1\nvalue = [0, 1, 0]"] ;
212 -> 213 ;
214 [label="entropy = 0.0\nsamples = 1\nvalue = [1, 0, 0]"] ;
212 -> 214 ;
215 [label="entropy = 0.0\nsamples = 18\nvalue = [0, 0, 18]"] ;
211 -> 215 ;
216 [label="fare <= 10.5438\nentropy = 0.5033\nsamples = 27\nvalue = [3, 0, 24]"] ;
208 -> 216 ;
217 [label="fare <= 8.9688\nentropy = 0.4022\nsamples = 25\nvalue = [2, 0, 23]"] ;
216 -> 217 ;
218 [label="fare <= 8.6875\nentropy = 0.65\nsamples = 12\nvalue = [2, 0, 10]"] ;
217 -> 218 ;
219 [label="age.bin <= 1.75\nentropy = 0.4395\nsamples = 11\nvalue = [1, 0, 10]"] ;
218 -> 219 ;
220 [label="entropy = 0.0\nsamples = 5\nvalue = [0, 0, 5]"] ;
219 -> 220 ;
221 [label="sibsp <= 1.0\nentropy = 0.65\nsamples = 6\nvalue = [1, 0, 5]"] ;
219 -> 221 ;
222 [label="entropy = 0.7219\nsamples = 5\nvalue = [1, 0, 4]"] ;
221 -> 222 ;
223 [label="entropy = 0.0\nsamples = 1\nvalue = [0, 0, 1]"] ;
221 -> 223 ;
224 [label="entropy = 0.0\nsamples = 1\nvalue = [1, 0, 0]"] ;
218 -> 224 ;
225 [label="entropy = 0.0\nsamples = 13\nvalue = [0, 0, 13]"] ;
217 -> 225 ;
226 [label="fare <= 11.8584\nentropy = 1.0\nsamples = 2\nvalue = [1, 0, 1]"] ;
216 -> 226 ;
227 [label="entropy = 0.0\nsamples = 1\nvalue = [1, 0, 0]"] ;
226 -> 227 ;
228 [label="entropy = 0.0\nsamples = 1\nvalue = [0, 0, 1]"] ;
226 -> 228 ;
229 [label="fare <= 12.6125\nentropy = 0.6052\nsamples = 27\nvalue = [0, 4, 23]"] ;
187 -> 229 ;
230 [label="age.bin <= 2.7824\nentropy = 0.7871\nsamples = 17\nvalue = [0, 4, 13]"] ;
229 -> 230 ;
231 [label="entropy = 0.0\nsamples = 2\nvalue = [0, 2, 0]"] ;
230 -> 231 ;
232 [label="pclass <= 2.5\nentropy = 0.5665\nsamples = 15\nvalue = [0, 2, 13]"] ;
230 -> 232 ;
233 [label="fare <= 10.0938\nentropy = 0.971\nsamples = 5\nvalue = [0, 2, 3]"] ;
232 -> 233 ;
234 [label="entropy = 0.0\nsamples = 1\nvalue = [0, 1, 0]"] ;
233 -> 234 ;
235 [label="fare <= 11.425\nentropy = 0.8113\nsamples = 4\nvalue = [0, 1, 3]"] ;
233 -> 235 ;
236 [label="entropy = 0.0\nsamples = 3\nvalue = [0, 0, 3]"] ;
235 -> 236 ;
237 [label="entropy = 0.0\nsamples = 1\nvalue = [0, 1, 0]"] ;
235 -> 237 ;
238 [label="entropy = 0.0\nsamples = 10\nvalue = [0, 0, 10]"] ;
232 -> 238 ;
239 [label="entropy = 0.0\nsamples = 10\nvalue = [0, 0, 10]"] ;
229 -> 239 ;
240 [label="fare <= 15.7458\nentropy = 0.9868\nsamples = 275\nvalue = [50, 16, 209]"] ;
162 -> 240 ;
241 [label="fare <= 15.3729\nentropy = 1.366\nsamples = 65\nvalue = [34, 7, 24]"] ;
240 -> 241 ;
242 [label="fare <= 14.4271\nentropy = 0.9883\nsamples = 55\nvalue = [31, 0, 24]"] ;
241 -> 242 ;
243 [label="survived <= 0.5\nentropy = 0.8631\nsamples = 21\nvalue = [6, 0, 15]"] ;
242 -> 243 ;
244 [label="entropy = 0.0\nsamples = 13\nvalue = [0, 0, 13]"] ;
243 -> 244 ;
245 [label="age.bin <= 2.5\nentropy = 0.8113\nsamples = 8\nvalue = [6, 0, 2]"] ;
243 -> 245 ;
246 [label="fare <= 13.6459\nentropy = 0.5917\nsamples = 7\nvalue = [6, 0, 1]"] ;
245 -> 246 ;
247 [label="parch <= 0.5\nentropy = 0.9183\nsamples = 3\nvalue = [2, 0, 1]"] ;
246 -> 247 ;
248 [label="entropy = 0.0\nsamples = 1\nvalue = [0, 0, 1]"] ;
247 -> 248 ;
249 [label="entropy = 0.0\nsamples = 2\nvalue = [2, 0, 0]"] ;
247 -> 249 ;
250 [label="entropy = 0.0\nsamples = 4\nvalue = [4, 0, 0]"] ;
246 -> 250 ;
251 [label="entropy = 0.0\nsamples = 1\nvalue = [0, 0, 1]"] ;
245 -> 251 ;
252 [label="fare <= 14.4791\nentropy = 0.8338\nsamples = 34\nvalue = [25, 0, 9]"] ;
242 -> 252 ;
253 [label="entropy = 0.0\nsamples = 13\nvalue = [13, 0, 0]"] ;
252 -> 253 ;
254 [label="fare <= 15.0167\nentropy = 0.9852\nsamples = 21\nvalue = [12, 0, 9]"] ;
252 -> 254 ;
255 [label="entropy = 0.0\nsamples = 8\nvalue = [0, 0, 8]"] ;
254 -> 255 ;
256 [label="age.bin <= 2.5597\nentropy = 0.3912\nsamples = 13\nvalue = [12, 0, 1]"] ;
254 -> 256 ;
257 [label="entropy = 0.0\nsamples = 11\nvalue = [11, 0, 0]"] ;
256 -> 257 ;
258 [label="pclass <= 2.5\nentropy = 1.0\nsamples = 2\nvalue = [1, 0, 1]"] ;
256 -> 258 ;
259 [label="entropy = 0.0\nsamples = 1\nvalue = [1, 0, 0]"] ;
258 -> 259 ;
260 [label="entropy = 0.0\nsamples = 1\nvalue = [0, 0, 1]"] ;
258 -> 260 ;
261 [label="fare <= 15.6208\nentropy = 0.8813\nsamples = 10\nvalue = [3, 7, 0]"] ;
241 -> 261 ;
262 [label="entropy = 0.0\nsamples = 7\nvalue = [0, 7, 0]"] ;
261 -> 262 ;
263 [label="entropy = 0.0\nsamples = 3\nvalue = [3, 0, 0]"] ;
261 -> 263 ;
264 [label="age.bin <= 1.7871\nentropy = 0.6388\nsamples = 210\nvalue = [16, 9, 185]"] ;
240 -> 264 ;
265 [label="age.bin <= 1.2255\nentropy = 0.9576\nsamples = 88\nvalue = [12, 7, 69]"] ;
264 -> 265 ;
266 [label="sibsp <= 2.5\nentropy = 0.7061\nsamples = 78\nvalue = [8, 3, 67]"] ;
265 -> 266 ;
267 [label="fare <= 18.7687\nentropy = 0.6666\nsamples = 46\nvalue = [8, 0, 38]"] ;
266 -> 267 ;
268 [label="entropy = 0.0\nsamples = 8\nvalue = [0, 0, 8]"] ;
267 -> 268 ;
269 [label="fare <= 19.3792\nentropy = 0.7425\nsamples = 38\nvalue = [8, 0, 30]"] ;
267 -> 269 ;
270 [label="entropy = 0.0\nsamples = 3\nvalue = [3, 0, 0]"] ;
269 -> 270 ;
271 [label="survived <= 0.5\nentropy = 0.5917\nsamples = 35\nvalue = [5, 0, 30]"] ;
269 -> 271 ;
272 [label="entropy = 0.0\nsamples = 9\nvalue = [0, 0, 9]"] ;
271 -> 272 ;
273 [label="fare <= 40.2896\nentropy = 0.7063\nsamples = 26\nvalue = [5, 0, 21]"] ;
271 -> 273 ;
274 [label="fare <= 22.1917\nentropy = 0.6343\nsamples = 25\nvalue = [4, 0, 21]"] ;
273 -> 274 ;
275 [label="entropy = 0.0\nsamples = 5\nvalue = [0, 0, 5]"] ;
274 -> 275 ;
276 [label="fare <= 22.6791\nentropy = 0.7219\nsamples = 20\nvalue = [4, 0, 16]"] ;
274 -> 276 ;
277 [label="entropy = 0.0\nsamples = 2\nvalue = [2, 0, 0]"] ;
276 -> 277 ;
278 [label="fare <= 29.5354\nentropy = 0.5033\nsamples = 18\nvalue = [2, 0, 16]"] ;
276 -> 278 ;
279 [label="entropy = 0.0\nsamples = 12\nvalue = [0, 0, 12]"] ;
278 -> 279 ;
280 [label="parch <= 0.5\nentropy = 0.9183\nsamples = 6\nvalue = [2, 0, 4]"] ;
278 -> 280 ;
281 [label="entropy = 0.0\nsamples = 1\nvalue = [1, 0, 0]"] ;
280 -> 281 ;
282 [label="parch <= 1.5\nentropy = 0.7219\nsamples = 5\nvalue = [1, 0, 4]"] ;
280 -> 282 ;
283 [label="entropy = 0.0\nsamples = 3\nvalue = [0, 0, 3]"] ;
282 -> 283 ;
284 [label="age.bin <= 0.5\nentropy = 1.0\nsamples = 2\nvalue = [1, 0, 1]"] ;
282 -> 284 ;
285 [label="entropy = 0.0\nsamples = 1\nvalue = [1, 0, 0]"] ;
284 -> 285 ;
286 [label="entropy = 0.0\nsamples = 1\nvalue = [0, 0, 1]"] ;
284 -> 286 ;
287 [label="entropy = 0.0\nsamples = 1\nvalue = [1, 0, 0]"] ;
273 -> 287 ;
288 [label="fare <= 30.2\nentropy = 0.4489\nsamples = 32\nvalue = [0, 3, 29]"] ;
266 -> 288 ;
289 [label="sibsp <= 3.5\nentropy = 0.8454\nsamples = 11\nvalue = [0, 3, 8]"] ;
288 -> 289 ;
290 [label="entropy = 0.0\nsamples = 8\nvalue = [0, 0, 8]"] ;
289 -> 290 ;
291 [label="entropy = 0.0\nsamples = 3\nvalue = [0, 3, 0]"] ;
289 -> 291 ;
292 [label="entropy = 0.0\nsamples = 21\nvalue = [0, 0, 21]"] ;
288 -> 292 ;
293 [label="fare <= 22.8041\nentropy = 1.5219\nsamples = 10\nvalue = [4, 4, 2]"] ;
265 -> 293 ;
294 [label="entropy = 0.0\nsamples = 4\nvalue = [4, 0, 0]"] ;
293 -> 294 ;
295 [label="survived <= 0.5\nentropy = 0.9183\nsamples = 6\nvalue = [0, 4, 2]"] ;
293 -> 295 ;
296 [label="entropy = 0.0\nsamples = 2\nvalue = [0, 0, 2]"] ;
295 -> 296 ;
297 [label="entropy = 0.0\nsamples = 4\nvalue = [0, 4, 0]"] ;
295 -> 297 ;
298 [label="age.bin <= 2.0003\nentropy = 0.3281\nsamples = 122\nvalue = [4, 2, 116]"] ;
264 -> 298 ;
299 [label="pclass <= 2.5\nentropy = 0.2559\nsamples = 93\nvalue = [4, 0, 89]"] ;
298 -> 299 ;
300 [label="fare <= 26.9854\nentropy = 0.3712\nsamples = 56\nvalue = [4, 0, 52]"] ;
299 -> 300 ;
301 [label="fare <= 25.0\nentropy = 0.1756\nsamples = 38\nvalue = [1, 0, 37]"] ;
300 -> 301 ;
302 [label="fare <= 23.5\nentropy = 0.3712\nsamples = 14\nvalue = [1, 0, 13]"] ;
301 -> 302 ;
303 [label="entropy = 0.0\nsamples = 13\nvalue = [0, 0, 13]"] ;
302 -> 303 ;
304 [label="entropy = 0.0\nsamples = 1\nvalue = [1, 0, 0]"] ;
302 -> 304 ;
305 [label="entropy = 0.0\nsamples = 24\nvalue = [0, 0, 24]"] ;
301 -> 305 ;
306 [label="fare <= 27.7354\nentropy = 0.65\nsamples = 18\nvalue = [3, 0, 15]"] ;
300 -> 306 ;
307 [label="entropy = 0.0\nsamples = 2\nvalue = [2, 0, 0]"] ;
306 -> 307 ;
308 [label="fare <= 35.0021\nentropy = 0.3373\nsamples = 16\nvalue = [1, 0, 15]"] ;
306 -> 308 ;
309 [label="entropy = 0.0\nsamples = 8\nvalue = [0, 0, 8]"] ;
308 -> 309 ;
310 [label="fare <= 38.0021\nentropy = 0.5436\nsamples = 8\nvalue = [1, 0, 7]"] ;
308 -> 310 ;
311 [label="entropy = 0.0\nsamples = 1\nvalue = [1, 0, 0]"] ;
310 -> 311 ;
312 [label="entropy = 0.0\nsamples = 7\nvalue = [0, 0, 7]"] ;
310 -> 312 ;
313 [label="entropy = 0.0\nsamples = 37\nvalue = [0, 0, 37]"] ;
299 -> 313 ;
314 [label="age.bin <= 2.0139\nentropy = 0.3621\nsamples = 29\nvalue = [0, 2, 27]"] ;
298 -> 314 ;
315 [label="entropy = 0.0\nsamples = 2\nvalue = [0, 2, 0]"] ;
314 -> 315 ;
316 [label="entropy = 0.0\nsamples = 27\nvalue = [0, 0, 27]"] ;
314 -> 316 ;
}